object,0.0008753227,0.016213486,-0.058391493,0.06424211,-0.008015924,-0.0201139,0.003716387,0.0064672306,0.052082,-0.081832215,0.032828484,-0.07238709,-0.01827841,-0.052923266,0.022503858,0.018010736,-0.008178442,-0.055332344,0.08206165,0.025677726,0.07406963,0.06298021,0.00035610396,-0.02066837,-0.03007525,4.839668E-05,-0.04202505,0.032904964,0.02475998,-0.026824906,0.051737845,-0.060494658,0.06558049,-0.058735646,0.07785532,0.046728488,0.032426972,-0.04378406,-0.022102347,-0.015659016,-0.018039415,-0.036537703,0.0011435957,-0.016156126,0.002844052,0.022044986,-0.04431941,-0.043898776,0.010793057,0.032828484,0.0025261873,-0.047760952,0.046690248,0.09735739,0.022561219,0.016203925,-0.045619547,0.104852304,0.03496989,0.08756812,-0.06680415,-0.012695465,-0.008484356,0.037015695,-0.07280773,0.00027111103,-0.061985992,0.080761515,-0.049864117,0.043592863,0.054567557,0.0023959344,-0.07081928,0.026270436,0.057511985,-0.014674352,-0.0007606046,-0.011720361,0.015964929,0.022350902,-0.0048229382,0.0189476,-0.01947339,-0.035677318,-0.03250345,-0.018536527,-0.10156372,0.04015132,-0.029138386,-0.05319094,-0.054032207,0.017991615,0.0056403046,0.052349675,0.038449667,-0.020974284,-0.1232072,-0.03066796,0.010917335,0.02659547,0.02005654,-0.025085015,0.032713767,0.015439139,-0.013211696,0.08351474,-0.009607637,-0.05066714,-0.03540964,0.06531282,-0.040610194,-0.02952078,-0.03833495,0.06638352,0.0103819845,-0.0318725,0.11525341,0.07735821,0.006376412,-0.031451866,0.019903583,0.049175806,-0.013823526,-0.08229109,0.058850363,0.010802617,-0.035352282,-0.054491077,-0.053037982,-0.077625886,-0.009846633,-0.01416768,-0.023134809,-0.065848164,-0.06523634,2.4048968E-05,-0.0005508857,0.018354889,-0.08963304,-0.011548284,0.056211848,-0.0039386535,-0.03730249,0.04267512,0.03231225,0.01422504,0.028239762,0.048372783,0.01602229,0.032924082,-0.0060226982,-0.015659016,-0.013116098,0.0061182966,-0.014330197,-0.08925065,0.048066866,0.007776928,-0.08443249,0.07158407,0.005128853,-0.049978834,-0.0020589503,-0.02535269,0.027800009,0.07923194,-0.0743373,-0.0014148561,-0.07884955,-0.018823322,-0.04799039,0.005678544,-0.08382066,-0.035294924,-0.0743373,-0.0013144778,0.05491171,-0.0031547465,-0.030209089,0.023287766,0.06259782,0.023842236,0.036537703,-0.014798629,0.07097224,-0.024090793,-0.01477951,0.042178005,0.0008556055,0.0056689843,-0.01772394,0.084891364,0.007953785,0.07311364,0.071201675,-0.029291345,-0.024626143,-0.02368928,0.016500281,0.01595537,0.041680895,-0.04542835,0.06615408,-0.07445202,-0.03850703,0.0049185366,0.011663003,0.002903801,-0.017532744,-0.08634446,0.065771684,0.0035610397,-0.012179234,-0.02714994,-0.036748018,-0.048181586,0.081679255,0.006428991,-0.029310463,0.021433158,0.012293952,0.10278738,0.143627,0.033306476,-0.01182552,0.056556,-0.029654618,-0.043478142,-0.062941976,-0.09491007,-0.012705025,0.019263074,-0.04680497,-0.048258062,-0.042178005,0.058697406,-0.018957159,0.026270436,-0.0089288885,-0.03726425,-0.045313634,-0.052846786,-0.0106018605,-0.015553856,0.02061101,0.060953528,0.05154665,0.024932059,-0.0650069,0.015592096,0.082979396,-0.04015132,0.0049472163,0.0058315014,-0.032599047,0.0013574971,0.035639077,0.07510209,0.078275956,0.05200552,-0.02657635,-0.019043198,-0.027322017,0.039271817,-0.055714738,-0.001234414,-0.0060561574,-0.014645672,0.029463422,0.046269618,-0.04191033,-0.018163692,0.058735646,-0.067224786,-0.117624246,0.03950125,-0.0007534347,0.10347569,0.0055781654,0.02892807,-0.012102755,0.023077449,0.05602065,-0.0105923,-0.033306476,0.03965421,0.040533714,0.003001789,0.070551604,0.09353346,0.048678696,-0.0003017324,0.024568785,-0.043363426,-0.0041107303,-0.06210071,0.03426246,-0.06206247,0.061221205,-0.022006748,0.12144818,0.0036661979,0.057664942,0.013259496,0.007929886,0.03305792,0.062941976,-0.012064516,0.023937834,-0.06611584,-0.006328613,-0.030247329,-0.03426246,-0.017398905,-0.033535913,-0.080608554,0.04737856,0.1293255,-0.044663563,0.042828076,0.03892766,-0.04072491,0.043057512,-0.0101334285,0.010353304,-0.0590798,-0.034530137,-0.0495582,0.0554853,-0.01063054,-0.036939215,-0.018144572,-0.0038645645,0.050284747,0.09322754,-0.040457234,-0.027876489,0.022924492,0.0066918866,-0.008838071,-0.07051337,-0.031509228,-0.053114463,-0.017867338,-0.063936196,0.071775265,-0.00651981,-0.022790654,0.031509228,0.03659506,0.028545678,-0.018985838,-0.058391493,0.049711157,-0.006309493,-0.008685113,0.0035873293,-0.032140177,-0.018125454,0.031031234,-0.021394918,-0.010315065,0.024893818,-0.013737488,-0.015716374,0.032866724,-0.032828484,0.04137498,0.026041,-0.0048731277,-0.022140585,0.003434372,0.0030949975,0.021069882,0.006993022,0.04179561,-0.016366443,0.071354635,-0.049711157,-0.011003374,0.04309575,0.02368928,-0.008149762,-0.072348855,-0.010267266,-0.0074088746,0.010879096,0.065771684,-0.06993978,-0.044893,0.05682368,-0.020974284,-0.07556096,-0.052234955,-0.037474565,0.026805786,0.023230407,0.038086396,0.03544788,-0.0038717345,0.010687899,-0.045657787,0.024855578,0.070551604,-0.016701037,-0.05215848,-0.045734264,0.048334543,-0.0059366594,-0.016433362,0.03365063,-0.04366934,0.03894678,0.0616036,0.012169674,-0.028239762,-0.054108683,-0.031222431,0.009923112,0.018488728,-0.0002599081,-0.014808189,-0.026786666,-0.013661008,0.013909564,0.07211942,-0.006988242,0.011663003,0.030476764,-0.0847384,0.032713767,0.005764582,-0.007580952,-0.015056745,-0.028488318,-0.034950767,-0.024970297,0.01886156,0.030342927,0.008173661,-0.0043807956,-0.039195336,-0.0060657174,0.008790271,-0.06726302,-0.01712167,-0.0028655615,0.006089617,-0.008737692,-0.082826436,-0.049902353,0.020496294,-0.039233577,-0.033956546,0.034606613,-0.029826695,0.06030346,0.020725729,0.010707019,0.03309616,0.007389755,-0.012915341,-0.072922446,0.006868744,0.013307295,-0.008957569,0.011682122,0.04080139,-0.044166453,-0.058735646,-0.016079647,0.03231225,0.06615408,-0.006993022,-0.00708862,-0.013737488,0.06454803,-0.032809366,0.03240785,-0.05433812,0.0032288353,0.005774142,0.0049233167,-0.017255507,-0.061488878,0.16580583,0.044740044,0.012446909,-0.068716116,0.047493275,0.0070073614,-0.023402484,0.04064843,-0.0224465,0.0005921125,-0.019396912,-0.04967292,-0.06978682,-0.019903583,-0.05124073,0.03554348,-0.046690248,-0.078620106,0.049711157,0.026385153,0.045351874,-0.0057502426,0.01711211,0.008015924,0.026920505,-0.011758601,0.0590798
Buildings,0.043463565,-0.00079100096,0.082617775,0.016693316,-0.05323579,0.0038414216,0.00811269,-0.03360428,-0.04167888,0.01611656,-0.00012871619,-0.014538638,0.014952162,-0.060026295,0.014941281,0.017520364,-0.003419736,0.023266174,0.068862654,0.06934147,0.07935311,0.0025369162,-0.018401824,-0.043028276,-0.035606604,0.029251393,0.0031776065,0.07508728,0.034779556,-0.022743829,0.012590722,-0.041461237,0.038762446,0.034474853,-0.0057784556,-0.0083629815,-0.036303066,0.04831703,0.05724045,0.028794339,0.019326814,-0.0031966504,-0.12753955,-0.016062148,-0.0022825445,0.014756283,-0.019141816,-0.027205536,0.02078503,0.07491317,-0.029708445,-0.016747728,0.024202045,-0.056239285,0.0018676601,-0.04402944,-0.07700255,-0.024441453,-0.011371914,-0.0029109924,-0.0154962735,0.034344267,0.021579431,-0.014799812,-0.018216826,-0.010653688,-0.08892945,0.049318194,0.04635823,0.020404153,0.00033394794,0.024071459,0.020665325,0.07691549,-0.0013541556,-0.018020947,-0.005588017,0.015659506,0.03164548,0.023897342,-0.02938198,-0.0009569547,-0.079396635,0.043180626,-0.03804422,-0.063552134,-0.028837867,0.05680516,-0.009413116,-0.036847178,-0.039088912,0.04500884,-0.0056206635,0.019794747,0.044747666,-0.0074706404,-0.008781947,0.012732191,0.03636836,0.050145242,0.13328536,-0.048665263,-0.011828967,-0.060809813,0.0038740684,-0.01582274,-0.004630382,-0.05937336,-0.041200064,-0.034561913,-0.15000044,-0.0019247916,-0.0095328195,0.06955911,0.019305049,-0.013853059,-0.00260493,-0.01843447,-0.022917943,-0.053061675,0.038131278,-0.010773392,0.013308948,0.013102186,0.02550791,0.052713446,-0.029839031,-0.055455763,-0.06555446,0.034757793,-0.019696807,0.0033870891,0.037804812,-0.021035321,-0.011393678,0.010659129,-0.03669483,0.06015688,-0.071039096,-0.019185344,0.043615915,-0.0019724013,0.08218248,0.050754648,-0.05902513,-0.0045922943,0.0085697435,-0.031819593,0.01469099,0.029708445,-0.02176443,0.018662998,0.003036138,-0.04270181,-0.010914861,-0.057675734,-0.014320994,0.008330335,0.002138355,0.03269017,0.008564303,-0.06594622,-0.0073400536,0.009690612,-0.022330305,0.031493127,-0.014027175,-0.015365686,-0.11456795,-0.01685655,-0.0077481368,0.06529328,0.04644529,0.04635823,-0.006899324,0.006279038,-0.039241266,-0.07238849,-0.08305306,-0.0031966504,0.025137914,-0.017226545,-0.023331467,0.01980563,0.008537097,-0.026008492,-0.09959403,0.075217865,-0.006251832,0.025812613,-0.029512566,0.00018652795,0.00816166,0.058067497,0.04688058,-0.048186444,-0.0733026,0.015311276,-0.010936625,-0.052887563,-0.017857714,-0.05406284,0.0071441736,-0.04394238,0.0079494575,-0.02816317,-0.021644725,0.023374997,0.002078503,0.012536311,0.10316339,-0.029055512,-0.048926435,0.029969618,-0.042636517,0.014484228,-0.0030742255,0.07299789,-0.006137569,-0.018902406,0.030861959,-0.03528014,0.086622424,0.07473905,-0.009842963,0.08731889,-0.058459256,-0.0561087,0.060809813,-0.018347414,-0.069820285,-0.050058186,-0.033451926,0.0011439928,-0.057545148,0.092977636,0.03802246,0.004728322,-0.034083094,0.013200126,-0.034823086,0.018423589,0.050406415,-0.028032584,-0.00928797,0.056195755,0.012753955,-0.040808305,0.06995087,0.011774556,0.010044284,0.010958389,-0.014669225,0.029229628,-0.07700255,0.000629128,-0.042919453,0.031667244,-0.01022384,-0.009598113,-0.013972763,0.047054693,-0.019631514,-0.03691247,0.004010096,-0.0061647743,-0.00849901,0.006382419,0.030535493,-0.07412964,-0.032951344,0.03906715,0.014375405,-0.051973455,-0.033016637,0.012547193,-0.0015343922,0.008052839,-0.033147223,0.036041893,0.016160088,-0.0028919484,0.07299789,0.013243655,-0.03911068,-0.026008492,-0.025442617,-0.02781494,-0.040220663,0.06607681,0.037674226,-0.06633798,-0.010708099,-0.023875577,-0.000997763,0.06894971,-0.0005685957,-0.15426627,0.09785287,0.04054713,0.041004185,0.065641515,0.04453002,0.048882905,-0.0026212535,0.020306213,-0.076349616,0.025921434,-0.0067252084,-0.021437962,0.026073785,-0.060026295,-0.029164335,-0.11630911,0.0034741468,-0.078439,-0.008830917,0.04483472,0.025877906,-0.027749646,0.02320088,-0.030905489,0.048142917,-0.024789684,-0.023070294,-0.046271175,-0.027727881,0.052800503,-0.05989571,-0.0006689161,0.005636987,0.041700646,-0.03800069,0.06346507,-0.001110666,-0.04191829,0.038849507,0.070386164,-0.007155056,-0.026966127,0.056674574,-0.033190753,0.057109863,0.023657935,0.0719532,-0.02781494,0.060026295,0.014146878,-0.0073890234,-0.0051935366,-0.014636578,-0.019000346,-0.087928295,-0.028903162,-0.0023043088,0.06964617,0.014799812,-0.012438371,-0.044704136,0.111869164,0.0029844472,0.017585658,0.04453002,0.0030116527,0.024463218,0.041657116,-0.011720145,0.10089989,-0.03734776,0.053105205,-0.052408744,0.047794685,-0.036433652,0.021916779,0.037521876,0.08966944,0.029186098,0.017748892,0.03227665,-0.037478346,-0.06855795,0.0437465,0.012253373,-0.05027583,0.06864501,0.0003065724,0.002776325,0.05872043,-0.021198554,0.030579023,0.07809077,0.011513383,0.01257984,-0.0013779604,0.01601862,-0.074651994,0.11561265,0.06973323,-0.040220663,0.023962636,0.008787388,-0.050711118,-0.027314357,-0.006861236,0.041657116,-0.07238849,0.03421368,-0.08226954,-0.0032347383,-0.07861312,0.029360214,-0.06894971,0.022896178,0.023549112,-0.028380815,-0.0764802,0.035606604,-0.07913546,-0.02418028,0.0004009416,-0.07708961,0.029534329,-0.0013446336,-0.060374524,-0.013276301,0.05876396,0.04394238,0.0048235413,-0.008743859,-0.10229281,0.008417393,0.0097395815,0.017161252,0.053366378,-0.04309357,0.027314357,-0.039393615,-0.024680862,-0.08932122,0.048491146,-0.016432144,-0.0009406314,0.013308948,0.025355559,-0.08862475,-0.09280352,0.062986255,-0.03140607,-0.01715037,-0.021546785,0.02574732,0.022090895,-0.05793691,0.07543551,-0.041940056,0.021601195,0.08771065,0.014952162,0.028729046,-0.046749994,0.08496833,0.07412964,0.033908978,-0.035650134,0.022080014,-0.023897342,-0.012362195,0.0062627145,0.033038404,-0.10063872,-0.0133415945,0.04988407,0.0025205929,-0.04679352,0.044442963,-0.010446926,-0.05036289,-0.04836056,0.07147438,-0.024223808,-0.039981257,-0.020404153,-0.04792527,-0.008205189,0.005318682,0.068383835,0.012024847,0.030992547,-0.056935746,-0.059199248,-0.019783866,-0.0479688,-0.02683554,-0.027836705,0.077960186,-0.059634533,-0.07913546,-0.04496531,0.0518864,-0.00358841,-0.037826575,-0.03945891,-0.053584024,-0.017705362,0.035018966,0.0034523825,-0.06263802,0.01125221,-0.001901667,-0.10124812,-0.015441862,-0.018151533
Spheres,0.036651526,0.0033632542,0.06800659,0.035655793,-0.0051667,-0.033960924,0.006493464,0.007107854,-0.01570931,0.0113979895,0.059532247,-0.05143925,-0.009088731,-0.04796477,0.026185716,0.079913035,-0.028071256,-0.008622643,0.05237143,0.01241491,0.07275222,0.043769974,0.008839797,0.033071116,-0.067540504,0.027626352,0.022923093,0.07974355,0.037943862,0.009295293,0.044575036,-0.05063419,-0.023770528,-0.045888558,-0.016662674,0.044320807,-0.036503226,0.12931845,-0.0007845386,0.06448974,-0.0070231105,0.06453211,-0.047032595,-0.067540504,0.05682046,0.063472815,-0.04686311,-0.016747417,0.101692095,0.10084466,-0.026842477,0.026990777,0.080887586,0.0073673804,0.0041232966,-0.010995458,-0.0958448,0.025740812,0.01798679,-0.062244035,-0.008421376,-0.01588939,0.032944,0.06648121,0.013982663,-0.01900371,-0.012616175,-0.039469246,0.033939738,0.0977939,-0.020984588,0.019734623,-0.025973856,0.02298665,0.04025312,-0.008310151,0.088980585,0.043028466,0.0031302099,-0.04864272,-0.051523995,0.03739303,0.024194244,0.06944723,-0.038494695,0.024872191,0.015571603,0.11372566,-0.069404855,0.004549662,-0.040274307,-0.013039893,-0.02095281,-0.018346949,0.017435957,-0.07330305,-0.0016101248,-0.04300728,0.058642443,0.047329195,-0.0018034457,-0.035338003,-0.04050735,0.03137625,0.055337448,0.03413041,0.038261652,0.017796116,-0.008908652,0.0004972055,-0.029893238,0.021514233,-0.04021075,0.009687232,0.0585577,-0.03370669,0.012531432,-0.016556744,0.036100693,0.021493047,0.015476266,-0.0155821955,-0.009342961,-0.013294123,0.015232628,-0.022817165,-0.024639148,-0.038960785,0.017467735,0.0012420206,0.0029474818,-0.08444681,0.074997924,-0.11414938,-0.020719765,0.019628692,-0.035804093,-0.006032672,-0.01816687,-0.030147469,0.035486303,0.010963679,0.07270985,0.0017213506,0.027562795,-0.062879615,-0.05635437,0.069998056,0.05461713,0.066311724,-0.12491179,-0.025338281,-0.011789927,0.011080202,0.019819366,-0.031503364,0.025571326,0.03341009,0.0004445719,0.039299756,-0.052329056,-0.04368523,-0.049913872,-0.019173197,0.011917043,-0.030888975,-0.07851477,-0.042477638,-0.09847184,-0.04419369,-0.022457004,-0.062159292,-0.00070840196,-0.016270736,-0.005405041,0.0518206,0.027605167,-0.060294937,-0.00347448,0.009528338,0.04347337,0.11025118,0.050295215,-0.022880722,-0.007806987,0.08436207,0.011069608,0.002435049,0.06609986,0.032371983,-0.035316817,0.017277064,0.062371153,0.06160846,-0.052032456,-0.06639647,-0.05707469,-0.0046900185,0.001485658,-0.0027938844,0.017065205,-0.00720319,0.019215569,-0.03735066,-0.071184464,-0.038812485,0.0023688432,0.02631283,0.008135368,-0.03739303,0.06542192,0.004846264,-3.6330428E-05,0.017382992,-0.07546401,0.009480669,-0.0023648709,-0.005203775,-0.054956105,0.037011687,-0.017457142,0.1171154,0.10948849,0.12177628,-0.018082125,0.026249273,-0.024808634,-0.026778918,-0.0038849558,-0.010375772,-0.016673267,0.023876457,0.012022972,-0.02819837,-0.037414216,0.039363317,-0.026545875,0.0098302355,-0.024173059,-0.04427843,-0.025359467,-0.009041063,0.04169376,-0.009136399,0.014766539,0.011090795,0.008326041,0.01788086,0.0208151,-0.007213783,0.016090656,-0.026228087,-0.03682101,-0.034808356,-0.0059479284,0.0027912362,-0.03887604,0.015232628,0.027350936,-0.01007917,-0.055040848,-0.065379545,0.011885264,0.033727877,-0.034977842,-0.011419175,0.021546014,0.023770528,0.0476258,0.013675468,-0.021111703,-0.01943802,0.06677781,-0.080252014,-0.008516713,0.01621777,-0.023643412,-0.010010316,-0.022054473,-0.010667077,0.030698301,-0.034808356,0.05792212,-0.05665097,0.010211581,-0.044914007,0.050676562,0.018950745,0.011440361,-0.054490015,0.055210333,-0.032668587,-0.054447643,0.059489876,-0.04252001,-0.02957545,-0.01040755,-0.062244035,-0.02982968,-0.049278297,0.054574758,0.050210472,0.07351491,0.033134673,-0.03673627,0.03152455,-0.020687986,0.034003295,0.033727877,-0.015868204,0.04071921,0.038092162,-0.03974466,0.0071502253,0.025338281,-0.08529425,0.025571326,0.07304882,0.014300451,-0.025867928,0.01552923,-0.026037414,0.053769697,-0.02074095,0.048049517,-0.077497855,-0.0630491,-0.0017279711,0.022160403,-0.09347198,0.067540504,0.036100693,-0.013294123,0.06084577,-0.008352523,-0.10211581,0.08563322,0.00014209418,-0.029130548,0.011705184,-0.004735038,-0.012107715,0.0040544425,-0.05088842,0.004859505,-0.010185099,-0.004491401,-0.02963901,-0.024300173,0.018156277,-0.027520424,-0.024384918,-0.07745548,0.071565814,-0.046608876,-0.045761444,0.0073197125,-0.13092858,-0.0031275616,0.06432025,-0.025274724,-0.017128762,-0.0076798717,0.022520563,0.015942354,0.10898003,0.04796477,0.023918828,-0.013082264,0.022160403,-0.033071116,0.043261513,0.0010870991,-0.026948405,0.023749342,0.021260004,-0.012531432,0.065930374,-0.06465922,0.0036519114,0.018156277,0.055973023,-0.03616425,0.014798319,0.00542093,-0.024045944,0.02370697,0.078684255,-0.080548614,-0.036693897,-0.0035168517,0.02222396,0.06359993,-0.057286546,0.08720097,-0.06826082,-0.010322807,0.042117476,-0.010788896,-0.059998337,0.018590586,-0.037117615,-0.015825832,0.012616175,-0.0058261096,-0.009380037,0.00858027,0.062159292,-0.02978731,-0.06851505,0.032075383,-0.07737073,0.059955966,0.06427788,-0.0035142035,0.06054917,-0.0028283114,-0.009671342,-0.053176492,0.1087258,-0.07241324,-0.05910853,0.055210333,-0.03432108,0.030698301,-0.0011473463,0.05266803,-0.007881138,0.05415104,-0.020878658,-0.0142368935,0.07554875,0.051947713,-0.0347448,-0.018463472,-0.064404994,-0.0070601855,-0.05139688,-0.01878126,0.0014552033,0.035782907,0.030274585,0.020317234,0.0062816055,0.0021689017,-0.028240742,0.05542219,-0.029257663,-0.05834584,-0.054701872,0.024935748,-0.0021357988,-0.022096844,0.04796477,-0.025783183,0.007076075,0.10736991,-0.017806709,0.038494695,0.010375772,0.10008197,0.071226835,-0.033579577,0.043240327,0.03199064,-0.05385444,0.081226565,0.035486303,-0.05262566,0.008098292,0.037816748,0.06932011,0.03510496,0.030062726,-0.006599393,-0.05042233,-0.035931207,0.017796116,0.047286823,-0.04112174,0.10152261,-0.021365933,-0.041248858,0.013156415,-0.01389792,0.071311586,-0.0027382716,0.06343044,-0.036100693,-0.0033182343,-0.033304162,-0.03521089,0.051778227,-0.026630618,0.039384503,-0.033579577,-0.12338641,0.014056814,-0.02446966,-0.015264408,0.06826082,-0.048981693,-0.0032732144,0.022393446,0.032668587,-0.01180052,-0.047752913,-0.0041762614,-0.014851283,-0.0100897625,0.008913948,-0.0006388859
